<?xml version="1.0"?>
<opencv_storage>
<cascade>
  <stageType>BOOST</stageType>
  <featureType>LBP</featureType>
  <height>40</height>
  <width>80</width>
  <stageParams>
    <boostType>GAB</boostType>
    <minHitRate>9.9900001287460327e-01</minHitRate>
    <maxFalseAlarm>5.0000000000000000e-01</maxFalseAlarm>
    <weightTrimRate>9.4999999999999996e-01</weightTrimRate>
    <maxDepth>1</maxDepth>
    <maxWeakCount>100</maxWeakCount></stageParams>
  <featureParams>
    <maxCatCount>256</maxCatCount>
    <featSize>1</featSize></featureParams>
  <stageNum>20</stageNum>
  <stages>
    <!-- stage 0 -->
    <_>
      <maxWeakCount>3</maxWeakCount>
      <stageThreshold>-7.5170892477035522e-01</stageThreshold>
      <weakClassifiers>
        <_>
          <internalNodes>
            0 -1 30 200 17301504 0 16777216 128 8388608 -2012706149 0</internalNodes>
          <leafValues>
            -8.5901641845703125e-01 9.3333333730697632e-01</leafValues></_>
        <_>
          <internalNodes>
            0 -1 8 14 16777216 2 218103809 136 16777346 8913032
            251660288</internalNodes>
          <leafValues>
            -7.6413714885711670e-01 9.4521594047546387e-01</leafValues></_>
        <_>
          <internalNodes>
            0 -1 41 268435472 268435456 16 487129088 136 268435584
            134252672 285737088</internalNodes>
          <leafValues>
            -8.3190280199050903e-01 8.7144458293914795e-01</leafValues></_></weakClassifiers></_>
    <!-- stage 1 -->
    <_>
      <maxWeakCount>3</maxWeakCount>
      <stageThreshold>-7.0879209041595459e-01</stageThreshold>
      <weakClassifiers>
        <_>
          <internalNodes>
            0 -1 25 -2131885054 16777216 12 -318767104 1082654906
            8388832 134441987 1233161344</internalNodes>
          <leafValues>
            -7.6656150817871094e-01 9.1718429327011108e-01</leafValues></_>
        <_>
          <internalNodes>
            0 -1 38 192 134217744 65680 352325632 192 8392704 10426
            -939306997</internalNodes>
          <leafValues>
            -7.9857301712036133e-01 8.5030448436737061e-01</leafValues></_>
        <_>
          <internalNodes>
            0 -1 14 1073741852 8 29 469762061 72 0 -2138570676 478281868</internalNodes>
          <leafValues>
            -6.9400769472122192e-01 8.5634243488311768e-01</leafValues></_></weakClassifiers></_>
    <!-- stage 2 -->
    <_>
      <maxWeakCount>3</maxWeakCount>
      <stageThreshold>-7.1013277769088745e-01</stageThreshold>
      <weakClassifiers>
        <_>
          <internalNodes>
            0 -1 19 -2212178 -335696146 -1275892 -305270818 2147319674
            1153458272 -524421 1103166728</internalNodes>
          <leafValues>
            -7.9401993751525879e-01 8.7975949048995972e-01</leafValues></_>
        <_>
          <internalNodes>
            0 -1 49 -212860926 -788398072 524291 286851072 -1472167254
            -1602224063 -2147483478 -1851055989</internalNodes>
          <leafValues>
            -7.9940670728683472e-01 8.3508294820785522e-01</leafValues></_>
        <_>
          <internalNodes>
            0 -1 29 -1362186546 -1426128914 -1259344145 -1343226931
            1076526638 7253998 67563208 1204811661</internalNodes>
          <leafValues>
            -7.0961046218872070e-01 8.8329386711120605e-01</leafValues></_></weakClassifiers></_>
    <!-- stage 3 -->
    <_>
      <maxWeakCount>3</maxWeakCount>
      <stageThreshold>-7.5235825777053833e-01</stageThreshold>
      <weakClassifiers>
        <_>
          <internalNodes>
            0 -1 44 285216776 12320 -129021 858391296 -1073741910
            805842944 58408747 277489666</internalNodes>
          <leafValues>
            -7.9661017656326294e-01 8.6138612031936646e-01</leafValues></_>
        <_>
          <internalNodes>
            0 -1 26 1073742026 268435584 72 1895825536 134217866
            16777224 134219919 -2127888373</internalNodes>
          <leafValues>
            -7.3324090242385864e-01 9.0443462133407593e-01</leafValues></_>
        <_>
          <internalNodes>
            0 -1 10 -721059707 -1122271099 134844675 -1693614062
            -1879013298 -1996324862 33554433 -805076989</internalNodes>
          <leafValues>
            -8.6018270254135132e-01 7.9763042926788330e-01</leafValues></_></weakClassifiers></_>
    <!-- stage 4 -->
    <_>
      <maxWeakCount>3</maxWeakCount>
      <stageThreshold>-9.0316170454025269e-01</stageThreshold>
      <weakClassifiers>
        <_>
          <internalNodes>
            0 -1 12 -218050219 -251293695 -1073700863 -787906551
            268468273 285245440 -2147434477 -217906429</internalNodes>
          <leafValues>
            -9.1181659698486328e-01 8.8770568370819092e-01</leafValues></_>
        <_>
          <internalNodes>
            0 -1 9 -720273157 -1794047999 1073758529 -1927741047
            1342177335 -1475280887 -1342150030 1869564679</internalNodes>
          <leafValues>
            -9.2772650718688965e-01 7.9801070690155029e-01</leafValues></_>
        <_>
          <internalNodes>
            0 -1 42 -352794448 1040121718 -1091649808 2134573054
            -826339398 -1073807362 2147393470 -1558552</internalNodes>
          <leafValues>
            -7.4528253078460693e-01 9.3638139963150024e-01</leafValues></_></weakClassifiers></_>
    <!-- stage 5 -->
    <_>
      <maxWeakCount>3</maxWeakCount>
      <stageThreshold>-8.2412296533584595e-01</stageThreshold>
      <weakClassifiers>
        <_>
          <internalNodes>
            0 -1 2 1408270329 -602832895 268435521 -550420463
            -1081573157 -15 16786295 -1082656921</internalNodes>
          <leafValues>
            -8.4935897588729858e-01 9.5286887884140015e-01</leafValues></_>
        <_>
          <internalNodes>
            0 -1 7 -788410031 -788414447 3 -581894127 -2130673645
            -1467809781 -2130656829 992690191</internalNodes>
          <leafValues>
            -9.0532344579696655e-01 8.6410897970199585e-01</leafValues></_>
        <_>
          <internalNodes>
            0 -1 6 1359007989 1359053057 1073758467 -50228975 1476968590
            805830784 16384 -242548221</internalNodes>
          <leafValues>
            -8.3458209037780762e-01 9.3055945634841919e-01</leafValues></_></weakClassifiers></_>
    <!-- stage 6 -->
    <_>
      <maxWeakCount>2</maxWeakCount>
      <stageThreshold>-5.4197829216718674e-02</stageThreshold>
      <weakClassifiers>
        <_>
          <internalNodes>
            0 -1 3 -805306287 -788529135 16387 151060480 -2012706422
            -1878392823 49184 -250509184</internalNodes>
          <leafValues>
            -9.4871795177459717e-01 9.4088667631149292e-01</leafValues></_>
        <_>
          <internalNodes>
            0 -1 5 537084059 -1878982655 131161 286326789 557057
            -2147483648 -2147450606 -620036053</internalNodes>
          <leafValues>
            -9.5821583271026611e-01 8.9452010393142700e-01</leafValues></_></weakClassifiers></_>
    <!-- stage 7 -->
    <_>
      <maxWeakCount>3</maxWeakCount>
      <stageThreshold>-6.2747412919998169e-01</stageThreshold>
      <weakClassifiers>
        <_>
          <internalNodes>
            0 -1 52 302127128 285212672 2145386496 285227776 -8456248
            979566566 -2012480582 25165834</internalNodes>
          <leafValues>
            -7.5454545021057129e-01 9.5531916618347168e-01</leafValues></_>
        <_>
          <internalNodes>
            0 -1 27 136 16842752 20 17825792 176 8913024 134250651
            526360</internalNodes>
          <leafValues>
            -7.5633257627487183e-01 9.1967833042144775e-01</leafValues></_>
        <_>
          <internalNodes>
            0 -1 35 1073758856 16777472 32 402721024 557192 32778 41667
            16973826</internalNodes>
          <leafValues>
            -7.5984364748001099e-01 8.8340389728546143e-01</leafValues></_></weakClassifiers></_>
    <!-- stage 8 -->
    <_>
      <maxWeakCount>2</maxWeakCount>
      <stageThreshold>-8.9529305696487427e-02</stageThreshold>
      <weakClassifiers>
        <_>
          <internalNodes>
            0 -1 11 -788479777 -788525039 131 419430400 -2138928945
            -1736277886 143294595 1531151239</internalNodes>
          <leafValues>
            -9.0366089344024658e-01 8.0388528108596802e-01</leafValues></_>
        <_>
          <internalNodes>
            0 -1 13 -1073740728 25231488 1036 -2130706432 -2013100032
            25690240 134875786 25331864</internalNodes>
          <leafValues>
            -8.4318166971206665e-01 8.1413155794143677e-01</leafValues></_></weakClassifiers></_>
    <!-- stage 9 -->
    <_>
      <maxWeakCount>3</maxWeakCount>
      <stageThreshold>-7.7330559492111206e-01</stageThreshold>
      <weakClassifiers>
        <_>
          <internalNodes>
            0 -1 18 -1325199273 -788459520 -2012987389 -1659830264
            688270 -1153826808 1208680999 993755203</internalNodes>
          <leafValues>
            -8.5127198696136475e-01 7.6675850152969360e-01</leafValues></_>
        <_>
          <internalNodes>
            0 -1 36 -1494168896 351793007 -1151007 628256426 200511183
            255700973 1148569230 23331909</internalNodes>
          <leafValues>
            -7.5546497106552124e-01 8.6368972063064575e-01</leafValues></_>
        <_>
          <internalNodes>
            0 -1 48 -771718961 -787447781 17301778 352321538 -2147442549
            -1468006400 176917130 -1962080118</internalNodes>
          <leafValues>
            -7.1324580907821655e-01 8.3343142271041870e-01</leafValues></_></weakClassifiers></_>
    <!-- stage 10 -->
    <_>
      <maxWeakCount>3</maxWeakCount>
      <stageThreshold>-5.8417296409606934e-01</stageThreshold>
      <weakClassifiers>
        <_>
          <internalNodes>
            0 -1 22 -2080358162 7340012 -1425997566 -269490199
            1425014220 1425993710 1145496772 1082983488</internalNodes>
          <leafValues>
            -7.7152901887893677e-01 8.1377303600311279e-01</leafValues></_>
        <_>
          <internalNodes>
            0 -1 28 33555204 -2121793398 10 1140850688 117476107
            142641336 -2013232640 -1987444736</internalNodes>
          <leafValues>
            -6.8398553133010864e-01 8.9236629009246826e-01</leafValues></_>
        <_>
          <internalNodes>
            0 -1 54 4280520 737280 8 0 537428104 -1870643064 8432266
            34229130</internalNodes>
          <leafValues>
            -6.8722671270370483e-01 8.7134152650833130e-01</leafValues></_></weakClassifiers></_>
    <!-- stage 11 -->
    <_>
      <maxWeakCount>2</maxWeakCount>
      <stageThreshold>3.3404473215341568e-02</stageThreshold>
      <weakClassifiers>
        <_>
          <internalNodes>
            0 -1 0 5849290 1375801345 134334471 16777346 8947847
            -2139094526 -2147317753 176890379</internalNodes>
          <leafValues>
            -8.7921845912933350e-01 8.6306655406951904e-01</leafValues></_>
        <_>
          <internalNodes>
            0 -1 40 36219016 -1389024638 -16455 152911662 133670786
            -1359013230 -1073747266 -1577057149</internalNodes>
          <leafValues>
            -7.7405387163162231e-01 9.1262292861938477e-01</leafValues></_></weakClassifiers></_>
    <!-- stage 12 -->
    <_>
      <maxWeakCount>2</maxWeakCount>
      <stageThreshold>-7.9665876924991608e-02</stageThreshold>
      <weakClassifiers>
        <_>
          <internalNodes>
            0 -1 1 269488464 1358954576 9 -2130673663 170 -2013265912
            33587840 570597515</internalNodes>
          <leafValues>
            -9.5667868852615356e-01 8.8910132646560669e-01</leafValues></_>
        <_>
          <internalNodes>
            0 -1 46 16842896 285212800 0 268500992 -2139062102 128
            -2146924406 130</internalNodes>
          <leafValues>
            -8.6664295196533203e-01 8.7701284885406494e-01</leafValues></_></weakClassifiers></_>
    <!-- stage 13 -->
    <_>
      <maxWeakCount>3</maxWeakCount>
      <stageThreshold>-7.3744672536849976e-01</stageThreshold>
      <weakClassifiers>
        <_>
          <internalNodes>
            0 -1 23 1073743108 16842890 -268435456 769454078 2147483593
            12609416 228110 402688512</internalNodes>
          <leafValues>
            -8.4536081552505493e-01 8.7622791528701782e-01</leafValues></_>
        <_>
          <internalNodes>
            0 -1 50 65552 1694564368 0 0 8421512 4232 136 9961986</internalNodes>
          <leafValues>
            -7.7733391523361206e-01 9.0388834476470947e-01</leafValues></_>
        <_>
          <internalNodes>
            0 -1 51 311428 1371602944 268521474 -1727987712 -1459582838
            -770961408 -2138961782 -1559164798</internalNodes>
          <leafValues>
            -7.9597425460815430e-01 8.9037030935287476e-01</leafValues></_></weakClassifiers></_>
    <!-- stage 14 -->
    <_>
      <maxWeakCount>3</maxWeakCount>
      <stageThreshold>-7.2030305862426758e-01</stageThreshold>
      <weakClassifiers>
        <_>
          <internalNodes>
            0 -1 16 -671039479 -1782317055 32768 -1878720511 -126844782
            151126146 -2012695887 -1023082367</internalNodes>
          <leafValues>
            -8.2491582632064819e-01 8.8469183444976807e-01</leafValues></_>
        <_>
          <internalNodes>
            0 -1 33 16842888 553713792 268435472 17956864 134742178
            524288 134218123 3801226</internalNodes>
          <leafValues>
            -7.8405010700225830e-01 8.7428307533264160e-01</leafValues></_>
        <_>
          <internalNodes>
            0 -1 43 1638466 327155716 327697 85000209 -2013257557
            -1450540920 -2012739445 -1693384565</internalNodes>
          <leafValues>
            -7.5881671905517578e-01 8.8866293430328369e-01</leafValues></_></weakClassifiers></_>
    <!-- stage 15 -->
    <_>
      <maxWeakCount>3</maxWeakCount>
      <stageThreshold>-8.0602830648422241e-01</stageThreshold>
      <weakClassifiers>
        <_>
          <internalNodes>
            0 -1 31 1055402978 8391310 -1079377920 426651631 2012659372
            -2043802744 1341163659 1444100</internalNodes>
          <leafValues>
            -8.1180220842361450e-01 9.3422406911849976e-01</leafValues></_>
        <_>
          <internalNodes>
            0 -1 17 -804728825 1141702796 -2147418094 1 -1693939581
            1360658560 147357699 1904672769</internalNodes>
          <leafValues>
            -8.7898886203765869e-01 8.6002457141876221e-01</leafValues></_>
        <_>
          <internalNodes>
            0 -1 47 37011 286326784 65543 285278481 8519822 168427520
            2267274 58916971</internalNodes>
          <leafValues>
            -8.2503455877304077e-01 8.8476276397705078e-01</leafValues></_></weakClassifiers></_>
    <!-- stage 16 -->
    <_>
      <maxWeakCount>3</maxWeakCount>
      <stageThreshold>-8.4598249197006226e-01</stageThreshold>
      <weakClassifiers>
        <_>
          <internalNodes>
            0 -1 4 537918839 1342210048 64 16777473 -2421 -3 -65013770
            -143261859</internalNodes>
          <leafValues>
            -8.5234898328781128e-01 9.0438246726989746e-01</leafValues></_>
        <_>
          <internalNodes>
            0 -1 21 -1073676146 128 67109120 1426063360 400 8421416
            134220206 1207994882</internalNodes>
          <leafValues>
            -8.5420680046081543e-01 8.7611842155456543e-01</leafValues></_>
        <_>
          <internalNodes>
            0 -1 34 1090519232 26214528 0 1358954496 269486216 8
            -2013263734 84017153</internalNodes>
          <leafValues>
            -8.3957153558731079e-01 8.6057329177856445e-01</leafValues></_></weakClassifiers></_>
    <!-- stage 17 -->
    <_>
      <maxWeakCount>2</maxWeakCount>
      <stageThreshold>2.2581866942346096e-03</stageThreshold>
      <weakClassifiers>
        <_>
          <internalNodes>
            0 -1 15 -792199033 -285278583 33775 -16711680 -151126156
            -160104449 -168429579 -973703819</internalNodes>
          <leafValues>
            -8.7768596410751343e-01 9.3567836284637451e-01</leafValues></_>
        <_>
          <internalNodes>
            0 -1 45 1109461008 16 0 1090519296 133632 2184 536872960
            1426065410</internalNodes>
          <leafValues>
            -9.1168910264968872e-01 8.7994414567947388e-01</leafValues></_></weakClassifiers></_>
    <!-- stage 18 -->
    <_>
      <maxWeakCount>3</maxWeakCount>
      <stageThreshold>-7.6361471414566040e-01</stageThreshold>
      <weakClassifiers>
        <_>
          <internalNodes>
            0 -1 39 909909160 218826788 -269570769 622931758 1342160092
            96341894 1876209454 198190</internalNodes>
          <leafValues>
            -8.6173635721206665e-01 9.5705521106719971e-01</leafValues></_>
        <_>
          <internalNodes>
            0 -1 32 268435598 0 0 286331137 142606506 524288 671623177
            131074</internalNodes>
          <leafValues>
            -8.3523267507553101e-01 9.3522137403488159e-01</leafValues></_>
        <_>
          <internalNodes>
            0 -1 53 -9996478 930854432 -256 824377856 2146909866
            2012610450 2138994570 1696612098</internalNodes>
          <leafValues>
            -8.2539886236190796e-01 9.3335425853729248e-01</leafValues></_></weakClassifiers></_>
    <!-- stage 19 -->
    <_>
      <maxWeakCount>3</maxWeakCount>
      <stageThreshold>-7.7322769165039062e-01</stageThreshold>
      <weakClassifiers>
        <_>
          <internalNodes>
            0 -1 20 16777312 128 0 17305856 176160904 0 134219930
            16779264</internalNodes>
          <leafValues>
            -9.2771083116531372e-01 9.2149168252944946e-01</leafValues></_>
        <_>
          <internalNodes>
            0 -1 24 -244 -286413848 -50 -1110638611 -97 -2138509912
            -37259 -1878999550</internalNodes>
          <leafValues>
            -7.6402169466018677e-01 9.9211829900741577e-01</leafValues></_>
        <_>
          <internalNodes>
            0 -1 37 1068311562 656932992 -1052761 657337896 2146954906
            573386280 669861642 3671587</internalNodes>
          <leafValues>
            -8.3763515949249268e-01 9.2060303688049316e-01</leafValues></_></weakClassifiers></_></stages>
  <features>
    <_>
      <rect>
        0 0 3 4</rect></_>
    <_>
      <rect>
        0 0 4 3</rect></_>
    <_>
      <rect>
        0 0 5 4</rect></_>
    <_>
      <rect>
        0 0 5 6</rect></_>
    <_>
      <rect>
        0 1 3 5</rect></_>
    <_>
      <rect>
        0 21 3 3</rect></_>
    <_>
      <rect>
        1 1 5 5</rect></_>
    <_>
      <rect>
        1 3 2 3</rect></_>
    <_>
      <rect>
        1 5 25 11</rect></_>
    <_>
      <rect>
        1 12 4 6</rect></_>
    <_>
      <rect>
        2 21 4 6</rect></_>
    <_>
      <rect>
        3 0 3 3</rect></_>
    <_>
      <rect>
        3 1 4 4</rect></_>
    <_>
      <rect>
        3 9 23 10</rect></_>
    <_>
      <rect>
        4 0 20 9</rect></_>
    <_>
      <rect>
        4 4 6 6</rect></_>
    <_>
      <rect>
        4 6 4 7</rect></_>
    <_>
      <rect>
        4 7 4 8</rect></_>
    <_>
      <rect>
        5 0 3 2</rect></_>
    <_>
      <rect>
        7 1 22 13</rect></_>
    <_>
      <rect>
        7 2 20 7</rect></_>
    <_>
      <rect>
        7 9 23 10</rect></_>
    <_>
      <rect>
        8 2 11 10</rect></_>
    <_>
      <rect>
        9 0 22 13</rect></_>
    <_>
      <rect>
        10 0 22 13</rect></_>
    <_>
      <rect>
        10 1 22 12</rect></_>
    <_>
      <rect>
        10 10 19 6</rect></_>
    <_>
      <rect>
        10 17 20 4</rect></_>
    <_>
      <rect>
        11 4 23 12</rect></_>
    <_>
      <rect>
        11 5 10 10</rect></_>
    <_>
      <rect>
        16 13 16 7</rect></_>
    <_>
      <rect>
        17 0 15 8</rect></_>
    <_>
      <rect>
        17 5 16 6</rect></_>
    <_>
      <rect>
        17 8 16 6</rect></_>
    <_>
      <rect>
        18 1 14 6</rect></_>
    <_>
      <rect>
        18 4 7 8</rect></_>
    <_>
      <rect>
        19 5 12 4</rect></_>
    <_>
      <rect>
        23 2 14 8</rect></_>
    <_>
      <rect>
        23 18 12 4</rect></_>
    <_>
      <rect>
        26 1 12 7</rect></_>
    <_>
      <rect>
        30 4 7 9</rect></_>
    <_>
      <rect>
        30 4 13 6</rect></_>
    <_>
      <rect>
        31 13 6 3</rect></_>
    <_>
      <rect>
        34 18 4 2</rect></_>
    <_>
      <rect>
        35 0 11 8</rect></_>
    <_>
      <rect>
        35 1 13 12</rect></_>
    <_>
      <rect>
        35 2 10 6</rect></_>
    <_>
      <rect>
        35 18 2 2</rect></_>
    <_>
      <rect>
        36 17 3 2</rect></_>
    <_>
      <rect>
        36 18 3 2</rect></_>
    <_>
      <rect>
        37 3 11 7</rect></_>
    <_>
      <rect>
        37 17 2 2</rect></_>
    <_>
      <rect>
        38 1 10 6</rect></_>
    <_>
      <rect>
        39 1 10 10</rect></_>
    <_>
      <rect>
        45 6 7 9</rect></_></features></cascade>
</opencv_storage>
